<?xml version="1.0" encoding="utf-8"?>
<Root>
  <ActivationFunctions>
    <Fn id="0" name="SteepenedSigmoid" prob="1" />
  </ActivationFunctions>
  <Networks>
    <Network id="40915" birthGen="1011" fitness="4829763.5">
      <Nodes>
        <Node type="bias" id="0" />
        <Node type="in" id="1" />
        <Node type="in" id="2" />
        <Node type="in" id="3" />
        <Node type="in" id="4" />
        <Node type="out" id="5" />
        <Node type="out" id="6" />
        <Node type="hid" id="51" />
        <Node type="hid" id="176" />
        <Node type="hid" id="230" />
        <Node type="hid" id="240" />
      </Nodes>
      <Connections>
        <Con id="19" src="2" tgt="5" wght="-3.0128291962217078" />
        <Con id="24" src="3" tgt="5" wght="3.7529629942816838" />
        <Con id="53" src="51" tgt="6" wght="-0.8013746438971977" />
        <Con id="90" src="3" tgt="51" wght="3.3422780950907489" />
        <Con id="94" src="2" tgt="51" wght="-1.2582250364092917" />
        <Con id="177" src="0" tgt="176" wght="-0.22944111823610208" />
        <Con id="178" src="176" tgt="6" wght="4.8584231279349313" />
        <Con id="232" src="230" tgt="51" wght="4.9737604846590306" />
        <Con id="241" src="4" tgt="240" wght="3.1998174291665973" />
        <Con id="242" src="240" tgt="230" wght="-0.34550425159461029" />
        <Con id="243" src="3" tgt="230" wght="2.7935435386147347" />
      </Connections>
    </Network>
  </Networks>
</Root>